[-0.6940732511705863, -0.05534156185681188, 0.37463753389608295, 0.052818255050401275, 0.4208166676387455, 0.8627392623085989, 0.15036152175455686, -0.5115565963081812, -0.24873819618868498, 0.8609102005931333, 0.9909302954755868, -0.5536449889327724, -0.7409890956508476, 0.2782035138812864, -0.13510253639433034, 0.8811263413421591, 0.1424779214218841, 0.5337490050842688, -0.7230102345018713, 0.9897118437559524, -0.4475250353978186, -0.4375337016974702, 0.8722949847229846, -0.6379137436594411, -0.16935560238506847, -0.23304258751223297, -0.08936242939086475, 0.34152198448354004, 0.15634864648041158, 0.20631755826740217, 0.2259854617824407, -0.4537314165313997, 0.4531777593840507, 0.21268345500634342, -0.17392412552479403, 0.08484468680663382, 0.10439396978940885, 0.005651074595906511, -0.3804101264140166, -0.42553375201457566, 0.1459853235154327, -0.14930842779189707, -0.843355586070923, -0.27810145237900435, -0.48444654547550314, 0.9754950482344202, -0.6319472387344034, 0.8068350206697679, -0.9010690212443591, -0.7114387915799811, -0.2815793116440548, 0.009264168626427566, 0.8981439261212143, 0.29944485798128184, -0.23745309690938998, 0.23754641340517257, 0.6968947094186242, 0.4543424564971611, 0.33879601442284024, 0.21320363802031858, 0.19343943286259702, -0.45956464735641045, 0.04160418357551486, 0.27903536016112007, 0.24146267764987095, -0.5907501236275918, -0.4471890155967402, -0.4970894608380015, 0.11844469103512865, 0.37107940100738124, 0.46356286720916423, 0.618813599065706, -0.6504598230005068, -0.37172612523877446, 0.613046158205236, -0.42181913104250146, 0.10678769408155075, -0.06022372491677741, 0.32105181715843256, -0.7285586867421316, 0.7608171009579354, 0.2514424773969717, 0.8807744461633353, -0.1254006130923371, 0.31391155867901444, -0.5715829491030968, 0.35918507336928696, 0.3746113948687251, -0.4030227158430468, 0.32071341435663575, 0.07397837514713257, -0.03926544248713565, -0.6868631799165552, -0.1921835206620706, 0.33958852171061976, 0.5986395449469606, 0.6638470075747565, 0.17977634907052065, 0.17359723973323882, 0.4418327589850365, 0.9409041836168002, 0.9657711034409148, 0.6398231238190446, -0.9362896291390552, -0.783598348128407, -0.36388104367049723, -0.234441183316053, -0.14802783167991476, 0.5143465341689206, 0.5703887883790575, 0.11304582974960405, -0.6439402390304819, 0.3797385514268622, 0.5461580614926009, -0.27323406001003403, 0.013315355810452761, -0.11235737531580445, 0.10541281863486346, -0.8380191922170557, -0.2764545058898684, -0.3243972555419467, 0.3631500276676365, -0.8886440745613466, -0.532459525385925, 0.9133771952285261, 0.37991255899069953, -0.2730878130217391, -0.021066934552229116, -0.8062998093808615, -0.3740683942723091, 0.36822413147074595, -0.23908205344669042, -0.1760634419773025, 0.9797475208889654, 0.00018383596346806252, -0.386996809362069, -0.4902821285226743, 0.0437208768042114, 0.09318583382798895, 0.697237472827759, 0.09135911490707982, 0.07860217728457286, -0.12142034089026696, -0.12611445927467607, 0.09134995281423348, -0.32653117886077476, 0.5386782411936065, -0.15034217506784117, -0.45073655804436036, 0.16183209337292648, -0.404671233538181, -0.9838556213131358, -0.22222370433420702, 0.2690755655123924, -0.9816099116593906, 0.40415399054525647, -0.459717946937658, -0.6755483185665156, 0.8194731070489216, -0.05590709600745569, -0.003701113258240435, -0.019553290661746353, 0.04321339440080382, -0.48106681640788124, 0.28504797027434425, -0.9193043537971997, 0.5367984164692605, 0.6301729821784086, 0.22281245055492174, 0.5890660092739517, 0.5411180303455302, -0.5766651048476144, 0.4441030769875126, -0.16885635366519214, -0.6749584313726749, 0.04597015669118294, 0.6674488185059764, -0.9008125139487577, 0.8777011602957132, -0.08692283677292759, -0.7213134396983718, -0.5773089232581492, 0.6704753849022558, -0.6692723480063082, 0.6359586377438493, -0.06341206543580502, -0.34419809556495023, -0.7574304477603482, 0.12434608280953197, 0.8757816405489569, 0.4124282116128513, -0.24296224571257571, 0.5718468513379582, 0.13861926697249466, 0.2511136906272697, -0.08289057096884621, 0.2901580865012192, 0.6460653777585469, -0.35771917352115823, 0.9939663422081344, -0.2120659104999093, 0.4157476608091862, -0.018499341879247063, 0.7009760172511402, 0.355202660751261, 0.3231962037468757, -0.11743850463693165, 0.08233090941852866, -0.8635908399686072, 0.4341575345922615, 0.6067440317327863, 0.17445032901482205, 0.8527409796246814, 0.9490007061477947, -0.6140321606055443, -0.1276245901328214, 0.0629247736478935, 0.32455137458908534, 0.5757040757166815, 0.9983131772827842, 0.7668631105770185, 0.33462909107935357, 0.4033555156691257, -0.513919678254654, 0.9568096552484027, -0.6286904962544173, 0.42058186452535906, 0.9109995327525089, 0.12810324948135432, 0.7280081084109706, 0.023295073604904237, -0.09686946676235803, -0.09817515627867338, -0.3601824660349038, 0.0600727887204515, 0.5639531143583332, 0.9284007933166205, -0.48659489948493406, 0.8549979663934599, 0.06704763858870821, 0.02084297554684445, -0.04900076703366438, -0.6705761564418415, 0.48406370224411477, 0.01927487410357398, -0.49897681610181166, -0.2574675860113722, 0.08298090819458692, -0.08394808729922976, -0.19683758426350484, 0.38340109450162774, 0.5284245807605565, 0.23513637049553282, -0.11432592523842637, 0.04699850046183074, -0.32382876967100194, 0.23136149293205777, -0.15684747932199597, -0.09228862965381412, -0.0733110598335694, -0.27133848465600285, -0.6437934645592671, 0.18888915876183532, 0.3862148035813997, 0.48815742165466847, 0.9866755776961118, -0.5539238099203394, -0.3551745204213743, 0.7955406725038703, 0.016455155582564496, 0.47359342844746133, -0.12465724923324498, 0.07278846320613708, 0.8232098094334843, 0.30957797515310026, 0.27726956861529595, -0.9647694538674669, -0.6775101122293501, 0.07053980013665442, 0.664825696773822, -0.07977342712984514, -0.47394863376916496, -0.9460892958747267, 0.4326379851381776, -0.056035150401658504, 0.8430959075116662, 0.7133001283275651, -0.10350536489874851, -0.7689828670614666, -0.23535265965232147, 0.6737763643337538, -0.603899798390497, 0.3756096861836224, 0.9635268218359743, 0.19197455733250163, -0.002876802627347963, 0.574996350174701, -0.2304236206310396, -0.32096530265058765, -0.022029542278172554, -0.9000777602077832, 0.7869389328833127, 0.0835956839777583, 0.0011823379376625365, -0.20583827603330512, -0.7453574943750529, -0.399375373252097, 0.4391495786734054, 0.28446505370765784, -0.0787314953711342, -0.10074949675917189, 0.5160196471473053, -0.7769973867955897, -0.9225471308945303, 0.5117995286919412, -0.48990312174250483, 0.4249946041578426, 0.25393140397905234, 0.36056972765530504, -0.18485176726175565, -0.9429387160663314, -0.27368849226943803, 0.8910235571545075, 0.07609251933470565, -0.7691190167267576, -0.24757622248443478, 0.6091424976930255, 0.08126912281836653, 0.2734130766899041, 0.6221715389339053, -0.754992972807973, -0.1182520506158254, -0.13533666438557265, 0.9562022074585157, -0.3424568613468708, 0.15619543460994745, -0.04836834927458355, 0.7075646285532464, -0.32927956176061424, 0.7764280394097869, -0.609599263389873, 0.14421675608994639, 0.14789683039171064, -0.9727479603396338, 0.12031786224170693, -0.29966130844326244, -0.7672383239336653, -0.3649412450887679, -0.32710519521338877, 0.0734018307668175, 0.5256214565547956, 0.555476158635622, 0.5242049422177053, 0.8688467747690849, -0.5002663470494215, 0.22966973942266145, 0.611617922105217, -0.6401481645168219, 0.1808195401459336, -0.3538252699978712, -0.4734025756861443, 0.33083025436522395, 0.9720131933664959, 0.718934946255264, 0.13192355496301222, 0.44639841960293536, -0.6709512671573443, -0.5678487369388694, 0.5123189809105344, -0.1642642569773121, -0.24139438267924354, -0.18914376602412775, 0.12801336281280998, 0.588771919016778, 0.2249345539313365, -0.3674804604314825, 0.8441335371842282, 0.5014684851652401, -0.7578212141175884, -0.822913191552827, -0.5370495941496366, -0.1964199879158829, -0.19353307989433446, 0.23060462941314866, -0.4704749494250122, -0.6912892055518136, -0.28264626444687185, -0.20671307115685267, 0.2949412973323715, 0.802404108913086, -0.21574934999179818, 0.4879453442620587, 0.7904043943473893, -0.28210695455057366, 0.385171608396478, -0.44091109026801245, 0.4243253312781916, 0.2603453557238071, 0.3773937503081286, 0.1534604769533232, 0.6764633862868201, 0.44085556844203966, -0.5444896697772129, -0.12360486072260464, -0.12782340659387015, 0.6210108654341409, 0.03370562717971792, -0.6352937763229934, 0.07819301831655512, 0.020366214754075296, -0.2134036278887517, 0.10559152162605778, -0.01651257467066772, 0.6437356317791909, 0.17206048110078576, -0.28678434699149347, 0.5006861463742549, -0.037758913446231945, 0.08750685971752377, -0.18624255415367874, 0.1030724385648194, 0.49898136661187786, 0.31344981105844516, 0.9342328624893148, -0.3928510481423993, 0.2597057280421493, 0.2095004981811585, -0.41793100394411614, -0.5897030802801415, 0.245286784806623, 0.7461829677142733, 0.5946486777137865, -0.306325161759153, -0.544177120671034, -0.3829751980596441, -0.06073493605414837, -0.3432909685620644, -0.22527018874095672, 0.29912105076887746, 0.47944099396074513, 0.8848550664764583, 0.061188240848040504, 0.41597486807524797, 0.9110565426533661, 0.7733687059866166, -0.2587242770725884, 0.3955972928006479, 0.031200825065683804, 0.47555390793476016, -0.23091235324024845, -0.42887621203919846, -0.9482512765435567, 0.3171483896075191, 0.9213760837246326, 0.42058827638619034, 0.012301791345316504, -0.9131152533030329, 0.16160496669874513, -0.11283927697257916, 0.8110486891127826, 0.0317425196188843, 0.02066104498353516, 0.7980755308324641, -0.5881630011375736, -0.36489211699672053, 0.9547965941596253, -0.805827844482147, -0.010450405352571357, -0.6863399968755617, -0.04143675018005541, 0.7882786062443294, 0.4626215364977515, 0.05772343145918124, 0.5932584388377826, 0.38361924278810244, -0.6727808456695148, -0.6715479884210154, 0.28140714198845485, 0.3590689362002221, 0.09768652606122191, -0.3833082530879802, -0.21148599887959652, -0.08575885743627087, -0.177120803124709, -0.971497778184496, -0.8748463862918712, -0.8819845780183952, 0.7923087937642062, 0.9508002664467312, 0.905558895357315, 0.17271468392795808, -0.06672589332019663, -0.06881976425742264, 0.35436701701703355, 0.112782036693579, 0.3284102943042009, -0.09624112199523394, -0.5594329571444102, -0.7411752249204073, 0.3360136179173705, -0.044716478303783, -0.10359800153718468, 0.13321654931803273, 0.9069040314016497, -0.9553362264695675, 0.017016732382019617, -0.7855538258441404, 0.39298896662485583, 0.4741034541478045, 0.9657070469554196, -0.007339707732574315, 0.05466288262095555, 0.305527681603493, -0.31922274511562426, 0.513472685511976, 0.4143238260849975, 0.609860942836906, -0.34312838595588785, 0.29875891072565186, -0.22113491969600632, 0.048482221404765574, 0.2132962938655254, -0.40897933007626813, -0.7945475809503053, -0.13064820950696743, 0.679754348470655, 0.06598385296277007, 0.4922373172959431, 0.6973783956927446, -0.2999095157138519, -0.31493103567750463, -0.2870877047455387, -0.2983905538343833, -0.5109157489950293, -0.8435991500159484, 0.8855142853637448, 0.48538811296284123, 0.2467393112429946, 0.5170154325011488, 0.3802930929012741, -0.6096533561317032, 0.03222816467913299, -0.9576643854426174, 0.5515835159737842, 0.713713923187673, -0.27046182167676946, -0.4606468797101899, -0.3861237633558688, 0.6473532363427246, 0.4728287591205702, 0.33352428104537135, 0.12743941354629373, -0.08368248491911254, 0.128680153508538, 0.21688569987315542, -0.2052726657772326, -0.16224158763385654, 0.49205024184993507, -0.9990380630803861, -0.4551298757843397, 0.8683246031081084, 0.7589954007619981, -0.2681656579138344, -0.0795845419956267, -0.38591058724851823, -0.14803133899411866, 0.1166728598379828, 0.1682042583961029, -0.680974902034037, -0.40999030331207154, -0.7849668140412718, 0.6898979261094109, 0.5843646206719215, -0.37857254521411, -0.12119188567315131, 0.06606779096245602, 0.7987081701604359, -0.7524858378730166, 0.8281576977383343, -0.9124592547214385, -0.7227704353256174, -0.34880794896015477, 0.5269320657897021, -0.3473413679915356, 0.5252435737470613, -0.1571143554271324, -0.004134298816022897, -0.5334106425483651, -0.24380980003735156, 0.9755718431667562, -0.3930050472654313, 0.5298817139957491, 0.10810017940999361, 0.5694872448456239, -0.20236493099874614, -0.5110774301892647, 0.9946989818171146, -0.6472476918784127, 0.7360666835075258, 0.0803493701598341, 0.3050098047613291, -0.6437202287181173, -0.8613931114384423, -0.20577946879087156, -0.4701434803474701, -0.09590882279663998, 0.034840462502051736, -0.763701471826504, 0.0206382355898711, 0.5550956597764507, -0.3370953982202949, -0.3983076366560946, -0.3761199606811749, 0.8624299671886859, -0.9245779460631707, -0.4562334144208049, -0.6768337811697724, 0.28189605869742973, -0.4171598824372431, -0.0804946519957328, -0.07284784710857883, 0.8529839858719007, 0.6146250859272699, 0.7489452776261254, -0.14786422509666763, 0.2807174902728737, -0.2722583458488572, 0.6975949821160798, 0.12614560556294885, 0.9786562343054559, 0.48191433260195915, 0.6646006281690201, 0.6293836917266085, 0.007675717495187584, 0.9055755973676769, 0.30531202325487206, -0.0644402117098523, 0.34674253051859, 0.5900561550793637, 0.6239149554548856, 0.7357296638645221, 0.51942592053366, -0.6398392284868626, -0.21970062764692738, 0.3709417184605069, 0.6217565963280451, -0.45316175955093296, -0.381817638820602, 0.7684918091687215, -0.4231162123719574, -0.09041499856014013, -0.20220376421885286, 0.17765107900318897, -0.9920124410955025, 0.7087915882321898, 0.5228342153463637, -0.026839117999381157, -0.19948530170882833, 0.34020650298053745, -0.6207034134512798, 0.7965517312784145, 0.5822514896301514, -0.649937186763601, -0.27580751569010364, 0.325842353696675, 0.39969252337149663, 0.18177546799245836, -0.292475579299221, 0.6135212659207541, -0.7346570339711692, -0.16373537175058323, -0.7660261053632378, -0.7193546399058246, 0.43442423699079175, 0.08312394498100979, -0.24966186694978204, -0.26230654488072636, -0.46468228006675094, 0.07135705790781802, 0.2831574288341614, -0.2937906633502411, -0.7770135997987639, -0.6130390997225814, 0.1323221569676329, 0.32625603483574284, 0.2776640134560451, 0.6842824943680359, 0.9649880339954043, 0.20396985790182076, 0.17279239055527745, 0.778301387132353, 0.011474109880736605, 0.8662623402657177, 0.6082168553676119, -0.07627391419028906, 0.3490541587235294, -0.24042750670721436, -0.022273544096302222, -0.562929144149303, -0.1397095904777381, -0.9292014615125237, 0.25633093005674895, 0.3892644066926393, 0.0835787949996164, -0.2568298616984509, 0.9488791448119704, 0.4845915307003544, 0.43005396048077693, 0.6432884656806499, -0.8843990613497652, 0.8852466421185938, -0.010231958516315642, -0.6320298392998813, -0.18461771979389516, 0.4747534253115532, 0.06144722059286667, 0.602692262375768, -0.9968396179056447, -0.18232893189321936, 0.49112282371669574, 0.46406261574745034, -0.13248943490506146, 0.6840896673834851, -0.62890534592704, 0.5478834751225605, -0.22745188067763245, 0.17705902410432764, 0.3373452225804876, 0.33720412757624874, -0.4194020591723581, -0.4855295420748675, 0.8891028485415977, 0.686194331233648, 0.4230264003050132, -0.9322564051910214, 0.3689749148443284, -0.25389798782516093, 0.10458510755257744, -0.2909818254726531, -0.13155763781461588, 0.2478734966826496, 0.15272457868425104, 0.684644103617818, -0.48395195708486405, 0.1733644478122116, -0.3377716203208816, 0.04101401544965322, 0.5327316482951725, 0.28941559866035643, -0.25095543443374635, 0.2926122851210897, 0.13813683293611878, -0.07578723198110682, -0.7422664703841062, 0.18364877586024395, 0.2397443303244704]