[0.42163804089458706, -0.22718292520791286, 0.8343442854392047, 0.5940258863773695, 0.39980418792346, -0.11012970396736033, -0.6908228863518361, -0.18568737599021268, -0.23558926402074412, -0.09819545226721371, -0.695961936584631, 0.4917752264603885, 0.4088527821624277, -0.5223586501042619, 0.1825365075397336, 0.225955606575875, 0.23571678607712765, 0.3896345570614901, 0.07773968548733445, 0.0011375850366291337, 0.6624469923219893, 0.4534796990070956, -0.03323070136639102, 0.3619532333206794, -0.11273315753884283, 0.17424857417054385, -0.3554681815199562, -0.16534515944229314, 0.0435768953348426, -0.4045383874000901, 0.07757650928241283, 0.3716201969358336, -0.3722292604091284, -0.006259469107749188, 0.05048338197517377, 0.8371390395925156, -0.16745722287865772, -0.3270892626843479, 0.6067333045452501, -0.7603528110045332, 0.1266917473361775, -0.33447485296636104, -0.18206948788751262, -0.4268803315559432, 0.16071402534786716, -0.73228015551585, 0.01090355929817699, -0.06903245308289607, -0.874945458129595, -0.6035798251026039, 0.6743584554696431, -0.02558693323755068, -0.2622920837409018, 0.08838365398777648, 0.906343153912218, -0.3460974442955522, -0.6265951861837408, 0.46835932925559187, -0.4700750131114293, 0.6563838348595668, -0.33519397955340446, -0.21108517220153244, -0.41361085078522136, 0.11056792293605167, -0.7609371446999493, 0.6271453060431589, -0.0961153564212637, 0.14024786215832952, 0.438413877205245, 0.22089410951615754, -0.7262004966317765, 0.3169704386085025, 0.4860776590384721, 0.6064097073595123, -0.11073141652997759, -0.10744566924592579, 0.02710245717336654, -0.8967358608471794, -0.1293845554660349, -0.05301206894612691, -0.6426078118511898, -0.8655949991984149, 0.673671617740439, 0.6807515608034793, 0.1744505899135102, 0.6547656725495823, 0.27686974000810616, -0.5083028098885991, -0.29589718661867953, -0.8212034575050717, 0.07380642195196901, 0.5992605162357303, 0.4867177073207103, -0.5715792718711693, -0.15790453867663, 0.06553122743038321, 0.37869479577878146, 0.0749436565531123, 0.5409644138780895, -0.3680090561856764, 0.31179528520897026, 0.037015416558380886, 0.4024115383461222, -0.009976736676320624, -0.33855810285074167, -0.9746552406792481, -0.01799249003439677, 0.3255444166758706, 0.5047939297800643, 0.0581892231191905, 0.8325465719342878, -0.3590628326987986, 0.7574255203385454, 0.1012681001701205, -0.15967592405547193, 0.017741758740845895, -0.20028894666203723, -0.0760820897850957, 0.09791817849779222, 0.7520124853339076, -0.31526896340806804, -0.6765250635289912, -0.9436703576196253, -0.1462669108992882, -0.13453523902051384, -0.2578748359311518, -0.22711895228020573, -0.21093114948682246, 0.5416800785309219, -0.003158209938757886, 0.34842282596873686, 0.5978792777082089, 0.898688450549241, -0.25939815060507776, -0.36966696958037004, 0.052379525559200044, -0.6020688581779663, 0.7661070772378473, -0.1182031969484445, -0.21383045115297455, 0.4135893297281039, -0.13920381899857137, 0.336028945130749, 0.19748066377241616, -0.13948902068655844, 0.0469363379591749, 0.444931006105236, -0.41871010880831994, 0.3490994536120272, 0.11160403633517174, -0.5786719496770246, 0.11728220722372645, -0.03974753931193306, -0.13866053067149364, 0.8483108317540948, 0.7040640425174538, 0.8674961308466644, -0.8583853520994903, -0.753707183418353, 0.011979465210454177, 0.1092113568261288, 0.4046949320488109, -0.08176751543101733, 0.49252664724660045, 0.8612491012802822, -0.5627046890977272, -0.5592442166830791, 0.8843134086441446, -0.06636306928221478, -0.46703106198377814, -0.45665060703103294, 0.008919801802415438, -0.9924017429097169, 0.023638368369720303, 0.997302363933388, -0.18973149732786837, -0.215797636450496, 0.41236869251686215, 0.592605010076464, 0.3845297505313532, -0.13286352809418256, 0.38890564578951287, 0.18987160987032609, -0.326391119431911, -0.8879322946412802, 0.2646979086721033, -0.11011528591655736, 0.6568878342602631, 0.17308993657613514, 0.02998192461532906, 0.06443493190250524, -0.3434907066278148, 0.46945672718379317, -0.16499619856613382, -0.8323479832269052, -0.6898465599878406, 0.8090951201312568, 0.8384782975542031, -0.5160327966831407, 0.9343501782820621, 0.165425185615534, -0.5288091529865075, -0.5323061226446644, 0.0686311184743656, 0.11705720482090645, -0.2534299316760281, 0.370578481785708, 0.3603118369630294, 0.34646495967119995, 0.7767060341746588, -0.31170762702697274, -0.8039940000081545, 0.5210787202049736, -0.8915956063533158, 0.9955522115631206, -0.43128310382515966, -0.4422475765349365, 0.24522036337056774, -0.5724413656628833, 0.18898266773677508, 0.7467288985110796, 0.8221911497963685, 0.033298343227974536, 0.9846531697180578, -0.7905124635641547, 0.48538031438635176, 0.1807686744571666, -0.21166797728384434, -0.8756652958642825, 0.013707919826266887, -0.7762193591036369, -0.027466553781136684, 0.9102389306754475, -0.23344146077827635, 0.6120594271215557, -0.6231798612706771, 0.3219873248973142, -0.1498925806931613, 0.3991038383032416, 0.7087812797848797, -0.2643229584701223, -0.3651867132727342, -0.4834522341756686, 0.09412827796634593, 0.48843722785696353, 0.924702102064751, 0.0842565444714063, -0.4600752477541285, -0.22612379445354636, -0.5797314524697559, -0.8008236788582913, 0.10927793552956522, 0.5700459059764992, 0.09130915925656766, -0.30284959692280156, -0.5138875043907327, 0.9048672504064514, 0.5003542949727329, -0.4277298537292002, -0.17682009280240465, -0.7983418339460064, 0.9372440988937285, -0.14775680456637263, -0.31637303483373996, 0.9086023441175874, -0.7116666640158016, -0.12905414438449386, 0.739134931924458, 0.5489941049355365, 0.6294431315868982, 0.3079573050590345, 0.07716056143947508, -0.7631070587557525, 0.06030130024417819, -0.010757276497764645, 0.21680341508388867, -0.24385693312938336, 0.3021264797468707, 0.4389489041718384, 0.03845656106897585, -0.5226943406434532, -0.06128840766542789, -0.36872359371863994, 0.907806996454392, -0.329707989738375, 0.6833752714013122, -0.6759313152493278, -0.412971073382029, -0.9879123753408021, -0.13262555666586706, 0.25256145179005296, -0.8120727048952777, -0.21298292036050656, -0.4016021584439442, 0.30451251060891815, 0.4556431636725027, 0.6786050683866534, -0.7055246339481653, 0.31415308510022943, -0.5309776969189994, 0.25140011388436817, 0.6954650592190093, 0.209064614921062, -0.22019208417048877, 0.7720952924780471, -0.22788161584657646, -0.7946996567382187, 0.380385400542006, -0.49412563624103156, 0.41726930754501734, -0.5535968052623557, 0.8738702834665357, 0.6312172900414306, 0.419122370534013, 0.4850017079209903, -0.547213315422729, 0.20276333976124672, 0.2299397411141873, 0.44948287842692386, -0.8634710901939071, 0.24640826218327594, 0.5383950332223579, 0.5306095313080075, -0.1670903003861921, -0.6264700694252548, 0.278152593965205, 0.5452979874665569, -0.44965374121032586, 0.15293153466191017, -0.5882282238569432, 0.6308177173306921, -0.27589300361791935, 0.630948985844763, -0.4119497467480775, 0.12770468340450553, 0.7845285500758482, -0.6729516835960149, 0.37352665531821394, 0.8888972164627351, -0.662306758365995, -0.07608087859849617, 0.23437632164214062, 0.4266979925781345, 0.151942614653785, -0.02009271451778849, 0.44459644016143285, 0.49740928463070727, -0.16837679034538122, 0.08459039456852495, -0.9260014585644292, 0.3156043686933716, 0.18029730003087382, -0.6649699705478787, -0.9887892859162704, -0.49492863716114166, 0.15094072990623397, 0.3286770217020194, -0.00842268575615801, 0.08771762498236267, -0.191207715551936, -0.19481599093517743, -0.18687939597892433, -0.16008652337900567, -0.6106521108430945, -0.33680758984677905, -0.3884088330762376, 0.38871745948339664, -0.571544618194318, 0.05120507960455112, -0.5574800865277841, -0.8094839236556419, 0.32225865576117174, 0.7443551173655197, 0.25776451695716013, 0.4648733935878702, -0.11211290979872598, 0.6485403394261273, -0.9265144877644966, -0.23173252493228502, -0.7589281342611203, 0.4187437671646923, -0.283325278908938, 0.11755708948066057, -0.3370494350845084, -0.8465174721798672, -0.05763001491559123, 0.49709965383970184, 0.4444508716418408, -0.045796618371695456, -0.9242015419574807, -0.2147513992641854, -0.4596069749433451, 0.32679673477576254, -0.12282873432792196, 0.0730090041646238, -0.11981846844760707, -0.5169016281574081, 0.12988386185906653, -0.7184836052792909, -0.2557820409254758, -0.653821028198811, -0.5408233474205151, -0.11733711457036011, -0.9492664430720219, 0.5635920614721681, 0.2688734859092848, 0.7725146971296604, -0.1116799999544048, 0.4461292962799268, -0.32735422633841815, -0.0018567271661285023, -0.7657146614278305, -0.22483180410567755, -0.5856749532179002, 0.466054370191827, -0.438982285083384, 0.21190212811828202, -0.2655882578080706, 0.37584698384434767, -0.5213492702457684, 0.43476945556324753, -0.8681660536931584, 0.48819414040583775, -0.34898733220221545, 0.9373668537702597, 0.7045543147299971, -0.10046600466489954, 0.10778035994874102, -0.1864301077765782, -0.03022626491679481, 0.3291044364557461, -0.9655242080550923, 0.4555638434297161, -0.3095699152977409, -0.03189390114258638, -0.35979982960237533, 0.26561925136091047, -0.45339329433801423, 0.8355115839417744, 0.9226573846843455, 0.8212528474750633, 0.23569565532541184, -0.6741402715912019, -0.46306638223297236, -0.5789509057031086, -0.7672187216489774, 0.8254648777999305, 0.9741220613371173, -0.2966695032421336, 0.30292817025764873, 0.4537320714636258, 0.5001578381030762, -0.5145660335220792, 0.3569932906580584, -0.030697563971414862, 0.030648759352572004, 0.2949170305977752, -0.28368236589992396, -0.7559350949203508, -0.5351005150914714, 0.060730989491361666, -0.26012800840929334, 0.519343278269371, -0.15290284681661453, -0.34357596699943804, -0.2887899235495825, -0.5404791586981199, 0.18438038386292388, 0.5390864363955112, 0.6116033329330539, 0.15244396453042655, -0.1378439041267654, 0.22708282512455627, -0.3575006037456788, 0.9781750080777283, -0.5246225690164871, 0.09850510793587072, 0.09852574105315604, 0.055346785611512406, -0.4225069041050912, 0.37430466309587224, 0.10887799170574763, 0.2570562853375878, 0.7082061673327247]