[0.5159363696354056, 0.4132473186247462, -0.2616896588842931, 0.13790786698108448, 0.38123819042283275, -0.6388958008436424, 0.5533756568331181, -0.16709772053096011, 0.9746494452754604, 0.23062996990987672, -0.08940535232690246, -0.0943475506671419, 0.5563546799093786, -0.2586533993617277, -0.6379420844874941, -0.49327647342767783, -0.8953966604004777, -0.3857631030195706, 0.40519554772552563, 0.15149619485929616, -0.17684457979804913, 0.4651163310293566, 0.2587135354191445, 0.3925296590826495, -0.914856636463736, -0.003637486076268903, -0.6110954385383756, -0.3673630681740969, -0.29082155761019357, 0.7058775991053448, -0.3233140846680991, -0.5605976144543241, 0.6156167592286157, -0.7860444784312477, -0.19066692315836842, -0.7994356280616582, -0.39827282063637415, 0.18349982481327126, 0.06425159771254665, -0.06935630048231614, 0.1603875781937781, -0.3425024622268896, -0.83879623237889, 0.9720364925382305, 0.7160847371559204, 0.5196249451672936, 0.5779343472439245, 0.9606423798713148, -0.6077158125930602, 0.7171296502328046, -0.3168739432032168, -0.3459661176308849, -0.9608118790365523, 0.9579163777068567, 0.0001316730415723555, 0.7037951984844506, -0.41167489485942976, -0.8871950758967004, -0.09831658651073294, -0.6939781599362498, 0.9083084290102064, 0.01614922731222246, 0.714873159112714, 0.4261953375238596, 0.5547794965988473, -0.4244826209391259, -0.19164877146267892, -0.08983468101850689, 0.5264043197549477, 0.21972917569743333, 0.9997883015112274, -0.5747719085885659, -0.06619529135139383, 0.4074129721171238, 0.16872665935446593, 0.5013467831311129, -0.7868329840856668, 0.5626908778426573, 0.407539827008647, -0.2775390039554624, -0.5946947295430226, 0.15664758338282406, 0.7240268107486716, 0.08677555208309065, -0.6413987188545849, 0.8630377831827595, -0.9488173551130961, -0.20865219437230167, -0.2966358605923038, 0.6194465112378335, 0.9512903697755257, -0.47391188063167705, 0.6049800294793581, 0.23154966889956463, -0.08925290766585223, 0.7969047176469976, 0.4815385904377567, -0.3929492583692723, -0.6109587247351671, 0.3043434863183228, 0.6032964019723513, 0.41045249021383134, 0.787162099342605, -0.4125843141651184, 0.555963446181128, 0.6661765176898007, -0.2609782941207428, -0.09182400216330033, 0.8840005913819113, 0.12274755481773061, 0.6190548992121476, 0.012041026544101108, -0.8209908552124943, 0.3661699486597003, -0.7968958987806649, -0.560231438497348, -0.9458499581255106, -0.3136924354736921, 0.6147670767532878, 0.03020381570487308, -0.7621992966990512, -0.02064249393321721, 0.9075964633319493, -0.14041353251323901, 0.5253396547592477, -0.2896862858870526, -0.4245943106538734, -0.3995918571406573, -0.4226083005270531, -0.5324384999495577, -0.8878379651334569, -0.4527210942707306, 0.31978614094257946, 0.07691831675714722, 0.32376605977275913, -0.7223430562011067, 0.2654950493023794, -0.4081701414155927, 0.6146040659363077, 0.29728164119113376, -0.2610871779488997, -0.3521915940130256, 0.24398051823180156, -0.43096581672513756, -0.8305525420154627, -0.43473508630376123, 0.9915844288024196, -0.07398981597526322, -0.725751710923997, -0.027445938019769134, -0.2591899944103586, -0.08705929748863679, 0.1770983928123786, -0.033952606015597686, 0.46161395056697296, -0.10938004267352541, -0.8245481888778665, 0.06695514601327099, 0.1506455658618091, 0.4514605721438567, -0.9175101119490392, -0.5712008145327687, -0.1841780907601794, 0.045559328171743164, 0.7382286399332743, 0.5874534950034556, -0.288278512138349, -0.8600259771201224, -0.1436298406731371, 0.8285579763734214, 0.11948186913004646, 0.445793114945581, -0.6792222608436529, -0.7210900565354349, -0.8758174189393089, -0.010096214740509969, -0.37099600310041625, -0.238362651628369, 0.5172640691537114, -0.1361820868426007, -0.027476396082055727, -0.8405689024282037, 0.5322483801401168, -0.34344453884720344, -0.0457949120492747, 0.3524665744809239, -0.4147421112060796, 0.6256200669798886, -0.5704182277196295, -0.021759473511776928, -0.47066369709867883, 0.4258628696166997, -0.045218381353547166, -0.5248810249322129, -0.9497070770986036, -0.5906542469777081, -0.6521004020736064, 0.7893057142892168, -0.6647197278512429, 0.4324883766467251, -0.19030788137996346, 0.33517430139429183, -0.8866386527635862, 0.46457193812913544, 0.19755454445773385, 0.07650334717385343, 0.3568249497479641, -0.10594217529958457, -0.07514608302110398, -0.4767326996587903, -0.9203811258780779, -0.32541503240043657, -0.21753473255446704, -0.5387151540993211, 0.28477331957797036, -0.3717841568267052, 0.5395818159092014, -0.3924760114469098, 0.12619512834015129, -0.1293797646188696, 0.07256494373977551, -0.515149612703717, 0.8240546615813933, -0.054102311994932234, -0.2591235950876152, 0.5063016507254634, -0.28252257312165474, 0.4461914405695535, 0.28091635324732067, 0.45726275054909826, -0.04239258584506417, 0.589325392936276, -0.6468337399647776, -0.7989794477569551, -0.5133184327195985, 0.3142648859156557, -0.07160266881787138, 0.8832342901769452, 0.6341015766795794, 0.1125519281188484, -0.1879593946060246, -0.48468651087379944, -0.7271269646163302, -0.15525163432106293, 0.4627517632334972, -0.7582259675596277, 0.19749128564268137, 0.2406216834841922, -0.24356688933080703, -0.13155573008994526, -0.0960041151747531, -0.48024587083569026, -0.5432466854591703, 0.32505330821005046, -0.7130201609154918, -0.9118005368679523, 0.2073676017635009, -0.06970126648215097, -0.1300626294503258, -0.11298164286921872, -0.49380915257747204, 0.08284528914046088, -0.5297624881315535, 0.07605975243758982, -0.09642746497851529, 0.5009090371177636, -0.5083140928845395, 0.5079424033482628, -0.3376400527553802, -0.09565445040162165, 0.3058214945954152, -0.9832989514432908, -0.012334259268282244, -0.312875251030865, 0.7934305913496935, -0.7898697750619497, -0.1645214882928407, 0.34686653856448146, -0.11767381073193683, -0.6253850685188622, 0.3584682708918221, 0.11444235921570062, 0.0057207446147519905, -0.16765675523794576, 0.1517124672290506, 0.25911771037581954, 0.40934799209713346, 0.21314955574632405, -0.13009897457904304, 0.8136410434543657, -0.10844170371293882, 0.044741266122141576, -0.052898671794276035, 0.6986950797023568, -0.3533117326089129, 0.2583297777987288, -0.15009543477913598, -0.18695021529588984, -0.13940096602400526, 0.4730803857812953, 0.06054886640151429, 0.28086043778773684, -0.4488209687440349, -0.0992242850901881, 0.05977108859463346, -0.7776073954852813, 0.0033702953251044665, -0.17810754371563964, -0.8502716228379514, -0.29186904563115323, -0.721772511409492, 0.538040582645871, 0.28089125201808174, -0.33802750055973096, 0.2368021872365353, -0.5394104932165549, -0.3169178116755751, 0.03166184659756577, 0.23247068135731908, -0.9145083467927917, -0.19312630618342885, 0.011140643102958592, -0.25934527184091327, -0.8276565448763915, 0.11653587772346403, 0.25794932822665984, 0.4256461875389317, -0.08814371449339276, 0.5987519978470444, 0.36520383482245505, 0.6641153641582911, -0.990668786539308, 0.15008587227430414, -0.3000529436570188, 0.3345302336001283, 0.46741075673230914, -0.3337716243478026, 0.017871937820118866, 0.42424878311344016, -0.023881050891903843, 0.1831484098178751, 0.3655305330626646, 0.051490229242092234, -0.12242574160752297, 0.5999812294614257, 0.14741154497786313, -0.6652756561353763, -0.6937615639484999, -0.06614927352486252, 0.288100729446674, -0.5643582911924456, -0.6193876924388342, 0.845282744638675, -0.29687994473071433, -0.3452201901258758, 0.6558070579535027, -0.6507371377750095, -0.6685517767129519, 0.6108254877196999, 0.11775574996353311, -0.3842372086000981, 0.9368057525032951, -0.23718413965057555, -0.4574369108195656, 0.4913960264154287, -0.2520702784055837, 0.23819154110793295, -0.6094839688207172, -0.26534784884874085, -0.18854513960345254, 0.18870645280925036, -0.35470897367320386, -0.21470308880170139, 0.38738953255153935, -0.28634864469663696, -0.3632859308369638, -0.5196512913942536, 0.27313434994118446, -0.008964915907755666, -0.5126542323105014, 0.35765117830914345, 0.8055094785215828, 0.17285442702019832, -0.3600292516748076, -0.8602555692578819, -0.7308498185594958, 0.019193023141385525, 0.28678091458953103, 0.09726525050055357, -0.17840315481541325, 0.593995538574948, 0.17119208658023816, -0.7643282564167653, -0.816301926240629, -0.27001433476819714, -0.3697916730040828, 0.943772163043272, -0.5168097844965226, -0.7490996087791049, -0.37693849193302265, 0.5554796753157052, 0.6857288218461535, -0.09128705854022101, 0.7207693126905252, 0.8291157785945933, 0.8172552564560416, 0.770762466629856, -0.118932626595601, 0.1180684778564256, -0.23431608435085916, 0.6237470901186085, 0.14499745223796778, 0.053684281497077324, 0.3408022852048937, -0.9412347532994823, 0.9642038930422421, -0.3417053485450876, 0.6432372598626415, -0.038695880247179286, -0.8107866654324396, 0.06702338440571731, 0.3567410382466114, -0.1296874251495502, 0.7121014877461895, -0.020503388821184423, 0.7996925677533809, 0.05785526296507911, -0.3778607950137183, -0.6152804138854643, 0.3286270099921561, -0.20845133788094317, 0.8058376631546891, 0.6631300084041912, 0.31270273409261984, 0.12978267861242365, 0.5903951072815571, -0.862359261490839, -0.9883054591217373, 0.39275813220799605, -0.09795988689170437, -0.697745373499937, 0.17025168338677266, 0.17777803886397814, -0.17713335217799564, 0.3364481861710448, -0.9883224476759132, 0.6259018500744373, 0.05594998946977725, -0.3922130832182794, -0.08777749388009481, 0.3399125176920397, -0.7053805531408819, 0.3480853567208283, -0.5487009118598705, 0.297830258860963, 0.3353971699709519, -0.5237595926347447, 0.014781711863414149, -0.24262844713697723, -0.264716091467926, 0.42569685072967933, -0.6238866756801968, 0.3248915096037, 0.04117812089329286, -0.12898588767406557, -0.5442374083947923, -0.12305927301212108, 0.3732491047650534, 0.5498767036252914, 0.2207514243562152, 0.18036704488631938, -0.7241255524160508, 0.8215183898247762, -0.219691310975144, -0.9086068235189866, -0.6494118884636999, 0.25001028250000235, 0.6470306007866475, 0.2431764240447054, -0.06905443134003941, -0.6190202569384429, -0.8894373916867981, 0.7289264236064115, -0.053144757197459536, -0.9959597681508647, 0.11971578243285644, -0.770635591559732, 0.3845553618358042, -0.7635985992209569, -0.09940761895246863, 0.7175829201814661, -0.437348508835559, 0.7583862775795249, 0.7835334589059091, -0.7061337429725114, -0.6125486760327256, 0.46251653870032494, -0.27263428647581883, 0.992917893510114, 0.5270397990531209, 0.34771717009779973, -0.5890104928218871, 0.7431075543905932, 0.4891412863087732, -0.527356612037685, -0.46569024460616465, -0.2810709844660728, -0.5808904845861078, 0.33394315350793113, 0.46348448263944625, 0.892309427546643, 0.2992408723358644, -0.21937565322892372, 0.224913804855629, -0.18603717151997815, -0.9822932014648567, 0.48408698585680954, 0.11227195292364045, -0.4381277500122758, 0.24941513386129177, -0.4491268571021065, 0.05963019690388571, 0.5644247804480619, 0.11448705303639878, -0.16628184425740988, -0.15031271860697504, 0.01809427944131939, 0.9565722976564197, 0.27516706605892266, -0.5546938273627084, -0.5209243372989163, -0.418864472662164, -0.3851965078661278, 0.8190441910765001, 0.5253408918805187, -0.04685464726613133, -0.1514653376757158, 0.7181686389963029, -0.48164149995322725, 0.18532328727328118, -0.5317965910332407, 0.06292289559773351, 0.2101663410651593, -0.17750340505532314, 0.15802044122919912, -0.28785889422943933, -0.982002173227686, 0.2619712898928972, -0.4745635045095499, 0.26723245292606645, 0.8289217933811848, 0.16434628743943963, -0.4307774883574189, 0.2536925056325521, 0.8296018647765873, -0.037404769278547634, -0.0008026078260530978, 0.5189925223730932, -0.2746048334490835, -0.32755797312668833, -0.572193623476553, -0.8036154877601522, -0.07049938420689678, -0.7370014840148498, 0.6464922441202754, -0.18135005282102257, 0.2236405889098616, -0.3551589328520244, -0.6341109540620882, -0.07092606747416001, -0.7540298383538568, 0.08722881844433905, -0.08949379752114606, -0.6200894229367369, 0.023942137263091356, -0.8834923416918479, 0.4087498410802281, 0.4060046597451697, -0.12772198244019983, 0.47109994803263855, 0.8215680071634095, 0.9259780420153765, -0.6845965611492464, -0.369943892343773, -0.03157760212033417, 0.9163968702741667, 0.23144896105135332, 0.9696953464104192, -0.23943323290916568, 0.565005022409178, 0.7593041736812043, -0.6400206111697879, -0.20860795088847284, 0.8490022459447453, -0.1798150232701942, 0.025723853495856153, -0.5386503976387568, 0.20806702372864103, -0.15540659690215874, -0.3350895787865664, -0.1892558325026315, -0.48591208611546555, 0.011516848742883376, 0.024712092354833626, -0.1703469801729115, -0.4210275815881064, -0.24007386900579641, 0.3790911309242757, 0.18237564823740007, -0.16079753997122953, -0.054786709528109157, -0.7314887555367167, -0.41985257211991045, 0.2851620296866921, 0.17664411252582007, -0.21545541357591258, 0.006761456908038088, -0.2777670033766954, 0.24312422731186725, 0.7218329178871943, -0.9163829192071655, -0.4554049217649886, -0.06357207563211248, -0.3133051588586624, -0.7871518421451019, -0.32144241462698003, -0.28794324489350287, -0.051221163412893206, 0.5750814648269594, -0.6553886115034849, -0.09269236852220762, 0.06304519066631875, 0.16052394908441658, 0.05387389980888457, 0.7221794389049025, 0.45175566820986335, -0.1994359162245799, -0.16746634283519213, 0.785964373844739, -0.8977092135240343, 0.4056110730071454, 0.12747680840866027, -0.3936818645892455, 0.22510574305901768, 0.3548421992059294, 0.6133908285483567, 0.38340260234752077, -0.6273039171598962, 0.19717923844211227, -0.5235844494607973, 0.007917325418649757, -0.7774386798439219, 0.6689168142875658, -0.2643957352732362, -0.7067606445863474, -0.11679622354401234, 0.6412017320915686, -0.09677802204976169, 0.1534512442502307, -0.9483311507413368, 0.36305923947156893, -0.591987176536611, 0.6896836528158892, -0.407615523276906, 0.21156515718622726, 0.8562166755606602, 0.15820946187711024, -0.2675608421381069, -0.04967249423287748, 0.17602000927788675, 0.1936673615218724, -0.1641408985357384, 0.05093611888300907, 0.2879233476078691, 0.06901228552729011, -0.05993240074804462, 0.005675051620337462, -0.7038524613307748, -0.2683098497858205, -0.19839480295341128, -0.024634372038899288, 0.37059674797029296, 0.5065198647229795, -0.18897845342565528, -0.2867587468625672, -0.24487851732325278, -0.23115924543770747, 0.22712538916098568, 0.7425025559086542, 0.4613927780068847, -0.7304690727792884, 0.4925524128463499, 0.8386322368226469, -0.32738134837947697, 0.4136079246696966, 0.5716662609351479, 0.754877400625851, -0.23386068531629292, -0.13886810778976977, 0.2175752967520444, 0.10208576571586829, -0.30310150586247464, -0.015330192527305941, -0.1714617224628301, -0.7580220954830366, 0.19081898640491057, 0.535298491928629, -0.12651907539552698, -0.01689767386152119, 0.4003759698239033, 0.7700724710352009, -0.5259255872316332, 0.4564522263874477, -0.9520523310933049, 0.7317627180118491, 0.12319814512630087, 0.26163858709605237, -0.1087515379101965, -0.8494881016655371, -0.1411230242409789, 0.7018561650171431, -0.48256889958868077, 0.2991909447194312, 0.8308883990952667, 0.3768866033800168, -0.15307311235434495, -0.002012353861903904, 0.07708048528096748, 0.19715672310598809, 0.6245656950914167, 0.454698965155909, -0.5493894734213862, 0.7612568161735961, -0.3046254307025411, 0.3931713789815484, 0.23284986775554106, -0.01663654500242999, 0.6924971934660544, -0.5821770407451733, 0.5243060073972161, -0.7887471037794416, -0.34514670106914064, -0.6656593466957064, 0.3999482843314777, 0.6892448627509965, 0.7557948945104083, 0.032117318017828696, -0.7269683507478237, 0.04043781081348984, 0.37736580113588913, -0.5697707700858394, -0.4914043308430727, 0.5098455626338096, 0.2839432909993959, -0.43442014361905046, -0.21875200726819943]